svm_type c_svc
kernel_type rbf
gamma 0.5
nr_class 4
total_sv 20
rho -0.0270881 -0.0336394 -0.0309454 -0.00540454 -0.000826001 0.00507727
label 0 1 2 3
nr_sv 5 5 5 5
SV
0.03125 0.03125 0.03125 1:1.3285 2:1.20084 3:1.53647 4:1.98429 5:0.76641 6:1.55321 7:2.03384 8:2.37415 9:0.55476 10:1.15764 11:1.45167 12:1.62961 13:0.58094 14:1.06244 15:1.34795 16:1.53039 17:0.85585 18:1.32213 19:1.66046 20:1.97539 
0.03125 0.03125 0.03125 1:1.3285 2:1.18522 3:1.58718 4:2.06764 5:0.76641 6:1.14859 7:1.54029 8:1.84573 9:0.55476 10:1.08476 11:1.60868 12:1.97363 13:0.58094 14:0.99777 15:1.49304 16:1.85105 17:0.85585 18:1.42709 19:1.79213 20:2.1215 
0.03125 0.03125 0.03125 1:1.3285 2:0.79437 3:1.08643 4:1.46917 5:0.76641 6:1.6229 7:2.12901 8:2.48854 9:0.55476 10:1.56253 11:2.17 12:2.57143 13:0.58094 14:1.12677 15:1.50028 16:1.74334 17:0.85585 18:1.08721 19:1.26863 20:1.44292 
0.03125 0.03125 0.03125 1:1.3285 2:1.40472 3:1.46982 4:1.2708 5:0.76641 6:1.27096 7:1.37443 8:1.39599 9:0.55476 10:1.55502 11:2.15312 12:2.54574 13:0.58094 14:1.45892 15:2.0339 16:2.42251 17:0.85585 18:1.53786 19:1.93677 20:2.29178 
0.03125 0.03125 0.03125 1:1.3285 2:1.23054 3:1.7142 4:2.19056 5:0.76641 6:1.29129 7:1.60507 8:1.82575 9:0.55476 10:1.19586 11:1.62111 12:1.90114 13:0.58094 14:1.07272 15:1.47171 16:1.74891 17:0.85585 18:1.11132 19:1.29535 20:1.47712 
-0.03125 0.03125 0.03125 1:1.3285 2:1.01289 3:1.18842 4:1.52068 5:0.76641 6:1.53462 7:2.02003 8:2.36507 9:0.55476 10:1.22011 11:1.53665 12:1.71725 13:0.58094 14:1.08959 15:1.39965 16:1.5932 17:0.85585 18:1.03614 19:1.16356 20:1.29331 
-0.03125 0.03125 0.03125 1:1.3285 2:1.06401 3:1.34272 4:1.40505 5:0.76641 6:1.54404 7:2.028 8:2.37039 9:0.55476 10:1.14036 11:1.17336 12:1.14005 13:0.58094 14:0.98731 15:1.041 16:1.06041 17:0.85585 18:0.99418 19:0.91579 20:0.85522 
-0.03125 0.03125 0.03125 1:1.3285 2:1.12788 3:1.2901 4:1.38761 5:0.76641 6:1.54996 7:2.03616 8:2.38251 9:0.55476 10:1.09725 11:1.29807 12:1.41759 13:0.58094 14:0.95428 15:1.16305 16:1.31415 17:0.85585 18:0.96494 19:1.03022 20:1.11994 
-0.03125 0.03125 0.03125 1:1.3285 2:1.31258 3:1.4419 4:1.4692 5:0.76641 6:1.54014 7:2.02245 8:2.36435 9:0.55476 10:1.0972 11:1.2527 12:1.33668 13:0.58094 14:0.97647 15:1.14657 16:1.26045 17:0.85585 18:0.97703 19:1.01611 20:1.0735 
-0.03125 0.03125 0.03125 1:1.3285 2:1.17088 3:1.40746 4:1.59347 5:0.76641 6:1.52055 7:1.99803 8:2.33822 9:0.55476 10:1.08806 11:1.2042 12:1.25993 13:0.58094 14:0.95215 15:1.08478 16:1.1793 17:0.85585 18:0.97014 19:0.96821 20:0.99208 
-0.03125 -0.03125 0.03125 1:1.3285 2:1.20882 3:1.67173 4:2.14807 5:0.76641 6:1.64319 7:2.15421 8:2.51691 9:0.55476 10:1.58256 11:2.19351 12:2.59696 13:0.58094 14:1.45275 15:2.03182 16:2.42504 17:0.85585 18:1.4578 19:1.84014 20:2.18717 
-0.03125 -0.03125 0.03125 1:1.3285 2:1.26616 3:1.64775 4:2.07645 5:0.76641 6:1.61934 7:2.12264 8:2.47549 9:0.55476 10:1.58212 11:2.18905 12:2.58487 13:0.58094 14:1.48 15:2.05951 16:2.44898 17:0.85585 18:1.51099 19:1.90417 20:2.25549 
-0.03125 -0.03125 0.03125 1:1.3285 2:1.27462 3:1.64454 4:2.05157 5:0.76641 6:1.61212 7:2.1127 8:2.46559 9:0.55476 10:1.57557 11:2.18142 12:2.57869 13:0.58094 14:1.4726 15:2.04772 16:2.43313 17:0.85585 18:1.51543 19:1.90809 20:2.25781 
-0.03125 -0.03125 0.03125 1:1.3285 2:1.29431 3:1.73199 4:2.20189 5:0.76641 6:1.6401 7:2.14975 8:2.51127 9:0.55476 10:1.5795 11:2.18985 12:2.59309 13:0.58094 14:1.46213 15:2.04341 16:2.43798 17:0.85585 18:1.49355 19:1.88496 20:2.2377 
-0.03125 -0.03125 0.03125 1:1.3285 2:1.33709 3:1.76594 4:2.23564 5:0.76641 6:1.64742 7:2.15882 8:2.52121 9:0.55476 10:1.58128 11:2.19157 12:2.59449 13:0.58094 14:1.45572 15:2.03487 16:2.42776 17:0.85585 18:1.47887 19:1.86665 20:2.21708 
-0.03125 -0.03125 -0.03125 1:1.3285 2:1.26239 3:1.44885 4:1.53621 5:0.76641 6:1.17294 7:1.2631 8:1.30962 9:0.55476 10:1.06856 11:1.27075 12:1.40037 13:0.58094 14:0.9582 15:1.16372 16:1.31232 17:0.85585 18:0.98839 19:1.00821 20:1.04967 
-0.03125 -0.03125 -0.03125 1:1.3285 2:1.33923 3:1.46555 4:1.32545 5:0.76641 6:1.20506 7:1.09405 8:0.94619 9:0.55476 10:1.14456 11:1.08242 12:0.96857 13:0.58094 14:1.01775 15:0.98071 16:0.91476 17:0.85585 18:1.01871 19:0.91398 20:0.8173 
-0.03125 -0.03125 -0.03125 1:1.3285 2:1.23596 3:1.44569 4:1.66084 5:0.76641 6:1.36491 7:1.2538 8:1.03449 9:0.55476 10:1.27555 11:1.21709 12:1.03754 13:0.58094 14:1.15619 15:1.1693 16:1.06551 17:0.85585 18:1.19852 19:1.09559 20:0.9054 
-0.03125 -0.03125 -0.03125 1:1.3285 2:1.24768 3:1.46789 4:1.68166 5:0.76641 6:1.26913 7:1.28147 8:1.21995 9:0.55476 10:1.18148 11:1.27877 12:1.28231 13:0.58094 14:1.08196 15:1.20272 16:1.23291 17:0.85585 18:1.11474 19:1.0788 20:1.00353 
-0.03125 -0.03125 -0.03125 1:1.3285 2:1.3899 3:1.54552 4:1.63569 5:0.76641 6:1.20231 7:1.19952 8:1.14986 9:0.55476 10:1.13738 11:1.21986 12:1.22921 13:0.58094 14:1.01059 15:1.10603 16:1.14879 17:0.85585 18:1.02467 19:0.98227 20:0.94172 
